10 100
</s> 0.0040026857 0.0044194032 -0.0038302613 -0.0032780457 0.0013665771 0.0030210877 0.00094085693 0.00021133423 -0.0036035157 0.0022184753 -0.0043563843 0.0012495422 -0.0007513428 -0.00095718383 -0.0033157349 -0.0018821716 0.0025793456 0.0030253602 0.0029690552 0.0015974427 0.0015447998 -0.0038026429 -0.0040957644 0.004969635 0.0038012695 0.0030900573 -0.0006039429 0.0040156557 -0.0004949951 0.00073471072 -0.00014923095 -0.0029832458 0.0013122559 -0.0013374329 -0.0038253784 0.004754181 0.0043792725 -0.0010951232 -0.00022613525 0.00050918577 -0.0036376952 -0.0040071104 0.0045547485 6.3018801e-05 -0.0025823975 -0.0030421447 -0.003076477 0.0016969299 0.00020141601 0.0013310242 -0.0042135622 -0.0038078309 -0.00013000489 0.0011436462 0.0025497437 -0.0031700134 0.0040795896 0.00092697144 0.0011196899 -0.0006083679 0.0029864502 -0.0022877501 -0.0020974732 0.0021583557 -0.00075317384 0.0010307312 0.0018045044 -0.0040885927 -0.0019830323 0.0029136657 0.0042318725 0.0039320374 -0.0030468749 -0.0021076966 -0.00090911868 0.0020014953 -0.0037884521 0.0029978943 0.0027877807 -0.0015989685 -0.0015515137 -0.0022383118 0.004228821 0.0039118957 -0.0011798096 0.0042149355 0.0048202514 0.0018153382 0.0049829101 -0.0031111145 -0.0015316772 -0.0021073914 -0.0029071046 0.0028147888 0.0015792847 0.00042495728 -0.0021936034 0.0015238953 0.0030593872 0.00019363403
the 0.33331048 -0.1381972 0.48813441 0.19772775 0.056318793 -0.071314618 -0.084298365 -0.15102345 -0.19574913 0.046220381 -0.13649316 0.060201198 -0.24318054 -0.16912943 0.094963372 0.18833348 0.15000089 0.42285386 0.21443003 0.30915686 -0.15236516 0.27855974 -0.013110887 0.052953567 -0.04144413 -0.028006375 0.0052680317 0.29085964 -0.21069334 0.38560426 0.040009066 -0.41132858 -0.021167012 0.110282 -0.046920471 0.066450752 0.13541503 -0.27881175 0.051069755 -0.20368586 0.14800012 -0.090775251 0.10670915 -0.25954157 -0.29747722 0.019518869 -0.29374269 -0.036975492 -0.2731277 -0.38449049 0.076341495 -0.024800431 0.089433528 0.079375796 0.11904664 -0.38261175 -0.0096063623 0.023738943 0.022050491 -0.2642656 0.26318827 0.0044733444 -0.26661852 -0.017568696 -0.019550957 0.13850795 -0.20355049 -0.065860152 0.17355077 0.049134437 0.010999191 -0.00054090383 0.30954835 0.0029005618 -0.17951259 0.16018485 0.0072108679 -0.12628466 -0.48698509 -0.039585881 0.21278965 0.11786596 0.084344417 -0.41646922 0.027759578 -0.011115693 0.18500923 0.1726879 0.15431292 -0.22886635 0.16021486 -0.15358956 -0.00069082982 0.17068987 -0.23315126 0.18037017 0.15507542 -0.17333417 0.17987248 0.02573983
to 0.080841638 -0.10482317 0.20341742 -0.040821753 -0.1186417 0.1326808 -0.1209709 -0.17510532 -0.34460279 0.24187 -0.28907672 -0.0068268725 -0.28503108 -0.17598468 -0.093148053 0.34073338 0.17169492 0.56364554 0.24240576 0.45777199 -0.24856895 0.31962389 0.12175774 -0.012936348 -0.37934339 0.30082908 -0.096067898 0.51109761 -0.26183039 0.42857254 0.0024842415 -0.28683704 -0.012057671 -0.13208069 -0.15417551 -0.25067246 0.15300363 -0.27371719 0.26725098 -0.1320066 0.11182793 0.26110062 -0.05759827 0.0039185123 -0.31457219 0.037798136 -0.25746918 0.15894856 -0.056852192 -0.46589193 -0.39429033 -0.33329239 0.030947044 -0.16151617 0.18866774 -0.40460512 0.17120337 0.29284579 -0.28100899 -0.059885457 -0.19445249 -0.18562561 -0.12075076 0.013987912 -0.11436323 -0.22207978 -0.21971521 -0.27237013 -0.056492787 -0.17967564 -0.092685737 0.1541377 0.21432005 0.22619598 0.1445481 0.36148411 0.11537405 -0.47807181 -0.45588824 0.24414687 0.44633359 -0.073258594 -0.11366079 0.158517 -0.10876214 0.076587684 0.05623598 0.035698302 0.19334953 -0.5261265 0.14467499 0.11242402 0.25593412 0.13777721 -0.048262853 0.28157461 0.22918275 0.038593259 0.32797161 -0.1061822
of 0.13820536 -0.22204138 0.64376986 0.51551884 -0.098678388 0.1907462 -0.35374665 -0.51068926 0.06728103 0.070001453 -0.054472212 -0.041399792 -0.12264945 -0.13463016 0.095460683 0.1251839 -0.062770657 0.45086315 0.43585852 0.15900257 -0.27379072 0.24381693 0.080138981 -0.068568647 -0.056925643 -0.10391784 0.12785935 0.27024341 -0.2081078 0.24208322 0.064618446 -0.53150594 -0.037344407 0.34928268 0.035348263 -0.025650322 0.25355199 -0.35889933 0.0077522052 -0.34324211 0.075072184 -0.10581332 0.12563598 -0.32781082 -0.56454223 -0.013550254 -0.11863518 0.06709782 -0.043648005 -0.069021106 -0.10898428 -0.043365166 -0.015203631 0.13515563 0.050656885 -0.20285788 0.035683379 0.080144525 -0.2135064 -0.077098772 0.011692938 -0.017006069 -0.26270229 0.02509913 -0.17994817 -0.24096675 -0.21647027 -0.36898267 0.33129653 -0.35798371 -0.0088314265 0.096942611 0.50406653 0.10992294 -0.33226141 0.18537617 -0.089908138 -0.29346851 -0.46039835 0.03085465 0.15452634 0.13533263 0.037654363 -0.23672228 0.011126893 0.10086433 0.14574069 0.13300195 0.11378938 -0.21306974 0.21353565 -0.19633779 0.067426004 0.208372 0.024729809 -0.012187524 0.0055172071 -0.15980273 0.18404783 0.11354214
in 0.10379452 -0.11198969 0.30658165 0.32765725 -0.0082867686 0.12834081 -0.071630329 -0.31491545 -0.064462423 0.056600049 -0.24672171 -0.0062057548 -0.18356386 -0.029676365 0.022523992 0.096835315 0.071326569 0.42819041 0.36232984 0.60132998 -0.13393475 0.38703042 -0.0054632947 -0.24105588 -0.27712673 -0.12186965 -0.34434968 0.44435468 -0.13358127 0.39874211 0.13023004 -0.28072685 -0.051141523 0.016998259 0.18057321 0.10338812 0.098829724 -0.1533062 0.38422856 -0.22051521 0.11026881 -0.19482331 0.1179225 -0.11830738 -0.14964536 -0.013946632 -0.17648154 0.054327115 -0.083536275 -0.15504502 -0.19134419 0.041391853 0.090003647 -0.086246364 0.078580827 -0.26625109 -0.09914282 0.15587552 -0.0040134164 0.24117178 0.16426335 -0.20573403 -0.12467184 -0.25286576 -0.045185886 0.18309674 -0.38357246 -0.3066 0.30965546 -0.029423269 -0.039403297 0.047156557 0.59852946 0.058102105 -0.35986868 0.3671447 -0.14730719 -0.23276779 -0.53198904 -0.13604352 0.1086674 -0.14489563 -0.020715326 -0.04914752 -0.12004235 -0.18199486 0.051716425 -0.19967124 -0.064383499 -0.42127022 0.079580769 -0.19646648 -0.016415218 0.10265868 -0.05549201 0.063592389 0.077200696 -0.14829589 0.21673857 -0.10380619
and 0.20195773 -0.29146817 0.22004183 0.35183442 -0.09488377 0.038860269 -0.18635683 -0.36658266 -0.060789041 0.058841657 -0.028556071 0.14856215 0.0037761615 -0.036323808 0.067697838 0.044820406 -0.073274106 0.45251822 0.35215831 0.27267608 -0.17498063 0.069149457 0.047384359 -0.16382916 -0.16256149 0.084950373 -0.11962818 0.31403935 -0.028969027 0.10810494 0.21849634 -0.2884661 0.016553154 0.063284166 0.072965592 -0.12963909 0.16981478 -0.36011192 0.28040665 -0.20399949 -0.008189653 -0.20619591 0.084320672 -0.25030476 -0.21706407 -0.34098428 -0.09067551 -0.027349051 -0.051604722 -0.27134636 -0.29275182 -0.042162806 -0.071259171 0.026483033 0.10855837 -0.29867625 -0.058391228 0.12916712 -0.027202575 -0.0041234558 0.004240145 -0.29115546 -0.409798 -0.079136975 -0.25731727 0.25915024 -0.29311201 -0.19382064 0.0076530133 -0.17312774 0.055637896 0.13137113 0.079205856 -0.051020108 -0.28485572 0.36519781 -0.27404296 -0.37549967 -0.44380233 0.092046067 0.26734695 0.060015559 -0.04627955 -0.041511394 -0.14776865 -0.18188977 -0.058107264 0.2351394 0.25878397 -0.18400538 0.0084821293 0.051446602 0.15216272 0.21959692 -0.26081613 0.13291937 -0.018669263 0.018679954 0.18456611 0.076426946
a 0.24404584 -0.15532127 0.32895637 0.20099048 -0.09014304 -0.10428579 -0.15289399 -0.11870804 0.070469603 0.31919336 -0.10965154 -0.029847872 -0.17642052 -0.097401269 0.13203894 0.14621949 0.2983909 0.70708197 0.11009793 0.14041209 0.03283187 0.6295259 0.15576074 -0.060657475 -0.18875749 0.10301331 -0.028560039 0.45014641 -0.20213614 0.35188326 -0.016309502 -0.36907852 -0.12907654 -0.036745388 -0.14084022 0.11572364 0.049114931 -0.18689628 -0.058125015 -0.21304692 0.060321063 -0.21531105 0.010090099 -0.28289524 -0.2522766 -0.19219364 -0.26352316 -0.029806059 -0.28113261 -0.39150089 -0.35159719 -0.18847401 -0.10610247 0.12363707 -0.15863661 -0.46725729 -0.41048661 -0.023223028 -0.067730419 -0.12733397 0.026935747 0.16417848 -0.11347653 -0.079339646 0.2103571 -0.017490406 -0.11305778 0.0055222963 0.12818603 0.1425653 0.011279093 -0.22695352 0.29183835 0.11200504 -0.15986621 0.060710888 -0.045436472 0.059301104 -0.36878112 0.16438159 0.079640873 -0.067320958 0.31575388 -0.18453823 0.074807122 -0.14737648 -0.079688221 0.008998597 0.23606773 -0.15363461 0.43024531 -0.22733539 0.38861501 -0.1122661 -0.22693276 -0.095884085 0.47973073 -0.12560409 0.3137292 0.039351687
s 0.41074041 -0.42944798 0.40805161 0.13223234 0.0020922914 0.02471591 -0.19233756 -0.3250705 0.011011459 0.25500801 -0.15339641 0.017403105 -0.17914191 -0.074622095 0.34328645 0.020362783 -0.10397342 0.49603924 0.37569442 0.2126831 0.08033219 0.10249285 -0.13651803 -0.036639936 -0.10478597 0.18935639 0.09808144 0.54342484 -0.46677008 0.35484061 0.094201289 -0.49145064 0.22803266 0.14859407 0.046540253 -0.016856195 0.16573258 -0.29656857 0.074260205 -0.13789707 0.087153986 -0.32494891 0.28320724 -0.30812332 -0.12902212 0.1179135 -0.38591009 -0.037003703 -0.29908821 -0.52371258 -0.091372035 -0.14022194 -0.0010646022 -0.040333085 0.43713453 -0.58073509 -0.016909769 0.092278413 -0.0041779876 -0.031273805 0.3465777 0.35412419 -0.14953513 0.11087603 -0.20909925 0.16181397 -0.61891872 -0.065999657 0.0035906001 0.0007280698 0.18549967 -0.1505165 0.58764738 0.27912739 -0.13280837 0.22502923 -0.18615994 -0.059437994 -0.21250094 0.0017512607 0.32351142 -0.096851945 0.021973751 -0.23257968 -0.017238092 -0.050009456 0.072389446 0.09489388 0.23763868 -0.43307921 0.24867146 0.041769721 -0.0060242359 0.1460564 -0.14387922 -0.010903957 0.31951982 0.078896396 0.40320286 -0.059682943
said -2.4750847e-05 -0.4627268 0.20162071 0.21884011 0.02915667 0.01485153 0.010324596 -0.071681865 -0.20761062 0.010268525 -0.24304862 0.056374341 0.037253246 0.26401627 0.56315774 -0.21552955 0.147902 0.46033037 0.17830223 0.0046214433 -0.22719201 0.22341643 -0.074803814 -0.27529642 0.13932186 0.37571687 0.60770464 0.26141402 0.040730305 0.30931866 -0.0010738582 -0.30116922 0.34890124 -0.010157577 -0.057530053 -0.060256556 0.13532385 -0.36984834 0.11318292 -0.17826353 0.14970888 -0.4499521 -0.061163541 -0.0057822596 -0.046148583 -0.10207853 -0.081298046 0.063613914 -0.22150958 -0.35608932 -0.26830223 -0.39559653 0.078104891 0.31686321 0.18710768 -0.042878378 -0.16475075 -0.016538091 -0.34547481 -0.3221285 0.14718215 0.073543794 -0.47862619 0.16109802 -0.2503092 0.044996552 -0.59492588 0.18941244 0.0377151 0.08211235 -0.25890011 0.13016614 0.53795016 0.074690297 -0.19164346 0.33899501 -0.086490124 -0.12696588 -0.21376175 -0.11946392 0.42211446 -0.066436447 -0.0602521 0.12005805 -0.23295268 -0.28962579 0.0095673492 0.26734713 0.38853833 -0.37432256 0.11475972 -0.14332922 0.22856498 -0.046651188 -0.092043012 0.12509468 0.3028706 -0.26360804 0.28676957 -0.1781545
on 0.1733252 -0.19850717 0.41569334 0.17603092 0.23753932 0.11125585 -0.066401303 -0.41937611 -0.15888983 0.27089369 -0.19904259 -0.044819735 -0.2244464 0.018645322 0.34236676 -0.097035453 0.15527099 0.56003213 0.4013375 0.68145013 -0.14095552 0.37727299 0.0019860482 -0.24885228 -0.4539023 0.077030204 0.15344657 0.23923542 -0.3085703 0.45581841 0.010851215 -0.62896657 -0.031277437 0.099667303 0.12593763 -0.00036376156 0.12499969 -0.28794202 0.078516163 -0.41919768 0.12064952 -0.012695658 -0.096735224 0.036035243 -0.37410757 0.06646543 -0.23483422 0.00057769171 -0.35528079 -0.26099911 -0.22986761 0.32624474 -0.114709 -0.25558707 0.20166266 -0.46319261 -0.039139409 0.011773583 -0.30335656 -0.082598068 -0.024524782 -0.066661328 -0.25031048 0.16797115 -0.20400311 -0.0073615503 0.13249157 0.08517082 0.041747753 -0.18227813 -0.020166136 0.18122588 0.066566519 -0.044307623 -0.13175096 0.67436397 -0.036414981 -0.40192315 -0.40932995 -0.40438601 0.43579417 -0.18119588 -0.17860007 -0.0048199981 0.0152288 -0.2694729 0.029022943 -0.3365629 0.11111777 -0.2815361 0.036557797 0.087269202 0.15332673 -0.012350716 -0.3621701 -0.16661555 0.1223188 0.054812215 0.21019323 -0.033571374
